digraph Tree {
node [shape=box, style="filled, rounded", color="black", fontname="helvetica"] ;
edge [fontname="helvetica"] ;
0 [label="ALB <= 36.691\ngini = 0.8\nsamples = 2132\nvalue = [427, 427, 426, 426, 426]\nclass = 0", fillcolor="#ffffff"] ;
1 [label="BIL <= 10.044\ngini = 0.561\nsamples = 747\nvalue = [46, 367, 0, 5, 329]\nclass = 1", fillcolor="#f3fded"] ;
0 -> 1 [labeldistance=2.5, labelangle=45, headlabel="True"] ;
2 [label="PROT <= 64.108\ngini = 0.23\nsamples = 421\nvalue = [40, 367, 0, 0, 14]\nclass = 1", fillcolor="#8ee955"] ;
1 -> 2 ;
3 [label="ALT <= 7.166\ngini = 0.112\nsamples = 377\nvalue = [9, 355, 0, 0, 13]\nclass = 1", fillcolor="#83e745"] ;
2 -> 3 ;
4 [label="gini = 0.0\nsamples = 13\nvalue = [0, 0, 0, 0, 13]\nclass = 4", fillcolor="#e539c0"] ;
3 -> 4 ;
5 [label="ALB <= 26.054\ngini = 0.048\nsamples = 364\nvalue = [9, 355, 0, 0, 0]\nclass = 1", fillcolor="#7ee63e"] ;
3 -> 5 ;
6 [label="gini = 0.0\nsamples = 305\nvalue = [0, 305, 0, 0, 0]\nclass = 1", fillcolor="#7be539"] ;
5 -> 6 ;
7 [label="gini = 0.259\nsamples = 59\nvalue = [9, 50, 0, 0, 0]\nclass = 1", fillcolor="#93ea5d"] ;
5 -> 7 ;
8 [label="AST <= 63.472\ngini = 0.429\nsamples = 44\nvalue = [31, 12, 0, 0, 1]\nclass = 0", fillcolor="#f0b489"] ;
2 -> 8 ;
9 [label="gini = 0.0\nsamples = 31\nvalue = [31, 0, 0, 0, 0]\nclass = 0", fillcolor="#e58139"] ;
8 -> 9 ;
10 [label="CHE <= 7.971\ngini = 0.142\nsamples = 13\nvalue = [0, 12, 0, 0, 1]\nclass = 1", fillcolor="#86e749"] ;
8 -> 10 ;
11 [label="gini = 0.0\nsamples = 1\nvalue = [0, 0, 0, 0, 1]\nclass = 4", fillcolor="#e539c0"] ;
10 -> 11 ;
12 [label="gini = 0.0\nsamples = 12\nvalue = [0, 12, 0, 0, 0]\nclass = 1", fillcolor="#7be539"] ;
10 -> 12 ;
13 [label="ALT <= 107.0\ngini = 0.066\nsamples = 326\nvalue = [6, 0, 0, 5, 315]\nclass = 4", fillcolor="#e640c2"] ;
1 -> 13 ;
14 [label="CHE <= 8.354\ngini = 0.037\nsamples = 321\nvalue = [6, 0, 0, 0, 315]\nclass = 4", fillcolor="#e53dc1"] ;
13 -> 14 ;
15 [label="GGT <= 13.9\ngini = 0.006\nsamples = 314\nvalue = [1, 0, 0, 0, 313]\nclass = 4", fillcolor="#e53ac0"] ;
14 -> 15 ;
16 [label="gini = 0.0\nsamples = 1\nvalue = [1, 0, 0, 0, 0]\nclass = 0", fillcolor="#e58139"] ;
15 -> 16 ;
17 [label="gini = 0.0\nsamples = 313\nvalue = [0, 0, 0, 0, 313]\nclass = 4", fillcolor="#e539c0"] ;
15 -> 17 ;
18 [label="AST <= 60.15\ngini = 0.408\nsamples = 7\nvalue = [5, 0, 0, 0, 2]\nclass = 0", fillcolor="#efb388"] ;
14 -> 18 ;
19 [label="gini = 0.0\nsamples = 5\nvalue = [5, 0, 0, 0, 0]\nclass = 0", fillcolor="#e58139"] ;
18 -> 19 ;
20 [label="gini = 0.0\nsamples = 2\nvalue = [0, 0, 0, 0, 2]\nclass = 4", fillcolor="#e539c0"] ;
18 -> 20 ;
21 [label="gini = 0.0\nsamples = 5\nvalue = [0, 0, 0, 5, 0]\nclass = 3", fillcolor="#3c39e5"] ;
13 -> 21 ;
22 [label="AST <= 31.3\ngini = 0.731\nsamples = 1385\nvalue = [381, 60, 426, 421, 97]\nclass = 2", fillcolor="#feffff"] ;
0 -> 22 [labeldistance=2.5, labelangle=-45, headlabel="False"] ;
23 [label="ALP <= 34.227\ngini = 0.17\nsamples = 333\nvalue = [302, 0, 29, 0, 2]\nclass = 0", fillcolor="#e88e4d"] ;
22 -> 23 ;
24 [label="PROT <= 72.17\ngini = 0.251\nsamples = 34\nvalue = [5, 0, 29, 0, 0]\nclass = 2", fillcolor="#5be9cf"] ;
23 -> 24 ;
25 [label="ALP <= 32.562\ngini = 0.32\nsamples = 5\nvalue = [4, 0, 1, 0, 0]\nclass = 0", fillcolor="#eca06a"] ;
24 -> 25 ;
26 [label="gini = 0.0\nsamples = 4\nvalue = [4, 0, 0, 0, 0]\nclass = 0", fillcolor="#e58139"] ;
25 -> 26 ;
27 [label="gini = 0.0\nsamples = 1\nvalue = [0, 0, 1, 0, 0]\nclass = 2", fillcolor="#39e5c5"] ;
25 -> 27 ;
28 [label="CHE <= 5.915\ngini = 0.067\nsamples = 29\nvalue = [1, 0, 28, 0, 0]\nclass = 2", fillcolor="#40e6c7"] ;
24 -> 28 ;
29 [label="gini = 0.0\nsamples = 1\nvalue = [1, 0, 0, 0, 0]\nclass = 0", fillcolor="#e58139"] ;
28 -> 29 ;
30 [label="gini = 0.0\nsamples = 28\nvalue = [0, 0, 28, 0, 0]\nclass = 2", fillcolor="#39e5c5"] ;
28 -> 30 ;
31 [label="CREA <= 138.6\ngini = 0.013\nsamples = 299\nvalue = [297, 0, 0, 0, 2]\nclass = 0", fillcolor="#e5823a"] ;
23 -> 31 ;
32 [label="gini = 0.0\nsamples = 297\nvalue = [297, 0, 0, 0, 0]\nclass = 0", fillcolor="#e58139"] ;
31 -> 32 ;
33 [label="gini = 0.0\nsamples = 2\nvalue = [0, 0, 0, 0, 2]\nclass = 4", fillcolor="#e539c0"] ;
31 -> 33 ;
34 [label="Age <= 46.5\ngini = 0.68\nsamples = 1052\nvalue = [79, 60, 397, 421, 95]\nclass = 3", fillcolor="#f8f8fe"] ;
22 -> 34 ;
35 [label="ALP <= 38.44\ngini = 0.506\nsamples = 470\nvalue = [42, 0, 314, 90, 24]\nclass = 2", fillcolor="#8af0dd"] ;
34 -> 35 ;
36 [label="CHE <= 8.787\ngini = 0.162\nsamples = 248\nvalue = [0, 0, 226, 22, 0]\nclass = 2", fillcolor="#4ce8cb"] ;
35 -> 36 ;
37 [label="gini = 0.387\nsamples = 84\nvalue = [0, 0, 62, 22, 0]\nclass = 2", fillcolor="#7feeda"] ;
36 -> 37 ;
38 [label="gini = 0.0\nsamples = 164\nvalue = [0, 0, 164, 0, 0]\nclass = 2", fillcolor="#39e5c5"] ;
36 -> 38 ;
39 [label="ALP <= 45.261\ngini = 0.702\nsamples = 222\nvalue = [42, 0, 88, 68, 24]\nclass = 2", fillcolor="#e5fcf7"] ;
35 -> 39 ;
40 [label="gini = 0.398\nsamples = 84\nvalue = [2, 0, 20, 62, 0]\nclass = 3", fillcolor="#7f7dee"] ;
39 -> 40 ;
41 [label="gini = 0.641\nsamples = 138\nvalue = [40, 0, 68, 6, 24]\nclass = 2", fillcolor="#c6f8ee"] ;
39 -> 41 ;
42 [label="ALP <= 66.338\ngini = 0.627\nsamples = 582\nvalue = [37, 60, 83, 331, 71]\nclass = 3", fillcolor="#9e9df2"] ;
34 -> 42 ;
43 [label="CHE <= 6.435\ngini = 0.411\nsamples = 441\nvalue = [12, 0, 52, 331, 46]\nclass = 3", fillcolor="#7371ec"] ;
42 -> 43 ;
44 [label="gini = 0.278\nsamples = 48\nvalue = [0, 0, 0, 8, 40]\nclass = 4", fillcolor="#ea61cd"] ;
43 -> 44 ;
45 [label="gini = 0.306\nsamples = 393\nvalue = [12, 0, 52, 323, 6]\nclass = 3", fillcolor="#6462ea"] ;
43 -> 45 ;
46 [label="BIL <= 3.756\ngini = 0.708\nsamples = 141\nvalue = [25, 60, 31, 0, 25]\nclass = 1", fillcolor="#dcf8cb"] ;
42 -> 46 ;
47 [label="gini = 0.032\nsamples = 61\nvalue = [1, 60, 0, 0, 0]\nclass = 1", fillcolor="#7de53c"] ;
46 -> 47 ;
48 [label="gini = 0.662\nsamples = 80\nvalue = [24, 0, 31, 0, 25]\nclass = 2", fillcolor="#e9fcf9"] ;
46 -> 48 ;
}